<?xml version="1.0"?>
<opencv_storage>
<cascade>
  <stageType>BOOST</stageType>
  <featureType>HAAR</featureType>
  <height>20</height>
  <width>20</width>
  <stageParams>
    <boostType>GAB</boostType>
    <minHitRate>9.9500000476837158e-01</minHitRate>
    <maxFalseAlarm>5.0000000000000000e-01</maxFalseAlarm>
    <weightTrimRate>9.4999999999999996e-01</weightTrimRate>
    <maxDepth>1</maxDepth>
    <maxWeakCount>100</maxWeakCount></stageParams>
  <featureParams>
    <maxCatCount>0</maxCatCount>
    <featSize>1</featSize>
    <mode>ALL</mode></featureParams>
  <stageNum>17</stageNum>
  <stages>
    <!-- stage 0 -->
    <_>
      <maxWeakCount>4</maxWeakCount>
      <stageThreshold>-1.4513494968414307e+00</stageThreshold>
      <weakClassifiers>
        <_>
          <internalNodes>
            0 -1 69 1.5505202114582062e-02</internalNodes>
          <leafValues>
            -8.7671232223510742e-01 8.0000001192092896e-01</leafValues></_>
        <_>
          <internalNodes>
            0 -1 93 -1.9473260268568993e-02</internalNodes>
          <leafValues>
            8.6091828346252441e-01 -7.0554524660110474e-01</leafValues></_>
        <_>
          <internalNodes>
            0 -1 11 6.5829572267830372e-03</internalNodes>
          <leafValues>
            -5.8648651838302612e-01 7.5046181678771973e-01</leafValues></_>
        <_>
          <internalNodes>
            0 -1 96 8.5037592798471451e-03</internalNodes>
          <leafValues>
            -4.9921956658363342e-01 7.1739464998245239e-01</leafValues></_></weakClassifiers></_>
    <!-- stage 1 -->
    <_>
      <maxWeakCount>5</maxWeakCount>
      <stageThreshold>-1.9292620420455933e+00</stageThreshold>
      <weakClassifiers>
        <_>
          <internalNodes>
            0 -1 81 -1.9782047718763351e-02</internalNodes>
          <leafValues>
            7.2340422868728638e-01 -8.3710408210754395e-01</leafValues></_>
        <_>
          <internalNodes>
            0 -1 55 4.1095808148384094e-02</internalNodes>
          <leafValues>
            -6.2731230258941650e-01 8.2242423295974731e-01</leafValues></_>
        <_>
          <internalNodes>
            0 -1 20 1.4654550701379776e-02</internalNodes>
          <leafValues>
            -5.0454515218734741e-01 7.5870209932327271e-01</leafValues></_>
        <_>
          <internalNodes>
            0 -1 26 -2.4670230224728584e-02</internalNodes>
          <leafValues>
            6.1395388841629028e-01 -5.1194220781326294e-01</leafValues></_>
        <_>
          <internalNodes>
            0 -1 109 -1.4818910858593881e-04</internalNodes>
          <leafValues>
            5.5164176225662231e-01 -5.6599098443984985e-01</leafValues></_></weakClassifiers></_>
    <!-- stage 2 -->
    <_>
      <maxWeakCount>6</maxWeakCount>
      <stageThreshold>-1.5904376506805420e+00</stageThreshold>
      <weakClassifiers>
        <_>
          <internalNodes>
            0 -1 90 1.6803048551082611e-02</internalNodes>
          <leafValues>
            -8.1165921688079834e-01 6.8613135814666748e-01</leafValues></_>
        <_>
          <internalNodes>
            0 -1 37 5.6589424610137939e-02</internalNodes>
          <leafValues>
            -7.3905509710311890e-01 5.3344243764877319e-01</leafValues></_>
        <_>
          <internalNodes>
            0 -1 74 -2.2437188774347305e-02</internalNodes>
          <leafValues>
            6.8277776241302490e-01 -5.5937272310256958e-01</leafValues></_>
        <_>
          <internalNodes>
            0 -1 2 3.0376099050045013e-02</internalNodes>
          <leafValues>
            -3.3504235744476318e-01 8.8415360450744629e-01</leafValues></_>
        <_>
          <internalNodes>
            0 -1 77 -1.8422016873955727e-03</internalNodes>
          <leafValues>
            4.6464422345161438e-01 -6.7211842536926270e-01</leafValues></_>
        <_>
          <internalNodes>
            0 -1 46 5.9899007901549339e-03</internalNodes>
          <leafValues>
            -6.2283986806869507e-01 3.9004749059677124e-01</leafValues></_></weakClassifiers></_>
    <!-- stage 3 -->
    <_>
      <maxWeakCount>6</maxWeakCount>
      <stageThreshold>-1.5779757499694824e+00</stageThreshold>
      <weakClassifiers>
        <_>
          <internalNodes>
            0 -1 69 2.3869622498750687e-02</internalNodes>
          <leafValues>
            -8.0204778909683228e-01 5.8885020017623901e-01</leafValues></_>
        <_>
          <internalNodes>
            0 -1 75 -3.4179501235485077e-02</internalNodes>
          <leafValues>
            3.5293066501617432e-01 -7.8164798021316528e-01</leafValues></_>
        <_>
          <internalNodes>
            0 -1 0 6.2101673334836960e-02</internalNodes>
          <leafValues>
            -4.1402286291122437e-01 8.2733494043350220e-01</leafValues></_>
        <_>
          <internalNodes>
            0 -1 3 -2.0764701068401337e-02</internalNodes>
          <leafValues>
            7.1092045307159424e-01 -3.5482761263847351e-01</leafValues></_>
        <_>
          <internalNodes>
            0 -1 65 -8.1836599856615067e-03</internalNodes>
          <leafValues>
            3.8426524400711060e-01 -7.6249921321868896e-01</leafValues></_>
        <_>
          <internalNodes>
            0 -1 13 1.7192578525282443e-04</internalNodes>
          <leafValues>
            -5.1413410902023315e-01 4.7132161259651184e-01</leafValues></_></weakClassifiers></_>
    <!-- stage 4 -->
    <_>
      <maxWeakCount>6</maxWeakCount>
      <stageThreshold>-1.8927956819534302e+00</stageThreshold>
      <weakClassifiers>
        <_>
          <internalNodes>
            0 -1 51 -1.2992560863494873e-02</internalNodes>
          <leafValues>
            5.4761904478073120e-01 -7.9931193590164185e-01</leafValues></_>
        <_>
          <internalNodes>
            0 -1 35 -7.1685863658785820e-03</internalNodes>
          <leafValues>
            5.1766628026962280e-01 -6.7265248298645020e-01</leafValues></_>
        <_>
          <internalNodes>
            0 -1 30 2.6250481605529785e-02</internalNodes>
          <leafValues>
            -6.4002603292465210e-01 4.6094256639480591e-01</leafValues></_>
        <_>
          <internalNodes>
            0 -1 97 2.9060045257210732e-02</internalNodes>
          <leafValues>
            -4.3689039349555969e-01 6.9772547483444214e-01</leafValues></_>
        <_>
          <internalNodes>
            0 -1 28 1.6393702477216721e-02</internalNodes>
          <leafValues>
            -3.1439900398254395e-01 7.4006110429763794e-01</leafValues></_>
        <_>
          <internalNodes>
            0 -1 8 8.9278919622302055e-03</internalNodes>
          <leafValues>
            -3.7644678354263306e-01 6.1705923080444336e-01</leafValues></_></weakClassifiers></_>
    <!-- stage 5 -->
    <_>
      <maxWeakCount>6</maxWeakCount>
      <stageThreshold>-1.4242126941680908e+00</stageThreshold>
      <weakClassifiers>
        <_>
          <internalNodes>
            0 -1 88 5.3669251501560211e-03</internalNodes>
          <leafValues>
            -7.1294850111007690e-01 7.3105132579803467e-01</leafValues></_>
        <_>
          <internalNodes>
            0 -1 52 -3.2829873263835907e-02</internalNodes>
          <leafValues>
            7.5745046138763428e-01 -4.5683360099792480e-01</leafValues></_>
        <_>
          <internalNodes>
            0 -1 105 -7.8018903732299805e-03</internalNodes>
          <leafValues>
            6.4319390058517456e-01 -4.1476872563362122e-01</leafValues></_>
        <_>
          <internalNodes>
            0 -1 47 2.9170481488108635e-02</internalNodes>
          <leafValues>
            -4.8644009232521057e-01 5.3561300039291382e-01</leafValues></_>
        <_>
          <internalNodes>
            0 -1 33 4.4445274397730827e-03</internalNodes>
          <leafValues>
            2.8405231237411499e-01 -9.2339038848876953e-01</leafValues></_>
        <_>
          <internalNodes>
            0 -1 70 -1.5153735876083374e-02</internalNodes>
          <leafValues>
            5.4811561107635498e-01 -5.2238780260086060e-01</leafValues></_></weakClassifiers></_>
    <!-- stage 6 -->
    <_>
      <maxWeakCount>6</maxWeakCount>
      <stageThreshold>-1.4468253850936890e+00</stageThreshold>
      <weakClassifiers>
        <_>
          <internalNodes>
            0 -1 54 4.2304933071136475e-02</internalNodes>
          <leafValues>
            -7.4761635065078735e-01 4.7540983557701111e-01</leafValues></_>
        <_>
          <internalNodes>
            0 -1 73 1.2260717153549194e-01</internalNodes>
          <leafValues>
            -6.5698164701461792e-01 4.1920840740203857e-01</leafValues></_>
        <_>
          <internalNodes>
            0 -1 72 2.4039607495069504e-02</internalNodes>
          <leafValues>
            -3.4884631633758545e-01 8.1095081567764282e-01</leafValues></_>
        <_>
          <internalNodes>
            0 -1 21 -1.6293689608573914e-02</internalNodes>
          <leafValues>
            7.3659008741378784e-01 -3.3232596516609192e-01</leafValues></_>
        <_>
          <internalNodes>
            0 -1 17 4.6935753198340535e-04</internalNodes>
          <leafValues>
            -6.3838422298431396e-01 3.7242120504379272e-01</leafValues></_>
        <_>
          <internalNodes>
            0 -1 83 1.1375902220606804e-02</internalNodes>
          <leafValues>
            -8.0239230394363403e-01 2.8212344646453857e-01</leafValues></_></weakClassifiers></_>
    <!-- stage 7 -->
    <_>
      <maxWeakCount>7</maxWeakCount>
      <stageThreshold>-1.7225160598754883e+00</stageThreshold>
      <weakClassifiers>
        <_>
          <internalNodes>
            0 -1 53 6.5452627837657928e-02</internalNodes>
          <leafValues>
            -7.7866512537002563e-01 5.0604492425918579e-01</leafValues></_>
        <_>
          <internalNodes>
            0 -1 104 6.3919466920197010e-03</internalNodes>
          <leafValues>
            -4.9124267697334290e-01 6.1469793319702148e-01</leafValues></_>
        <_>
          <internalNodes>
            0 -1 79 -4.0377110242843628e-02</internalNodes>
          <leafValues>
            6.9951981306076050e-01 -3.5120534896850586e-01</leafValues></_>
        <_>
          <internalNodes>
            0 -1 23 -1.5188219025731087e-02</internalNodes>
          <leafValues>
            4.2942664027214050e-01 -5.4825800657272339e-01</leafValues></_>
        <_>
          <internalNodes>
            0 -1 85 -2.0082894479855895e-04</internalNodes>
          <leafValues>
            3.6906901001930237e-01 -6.4533597230911255e-01</leafValues></_>
        <_>
          <internalNodes>
            0 -1 29 1.7794704064726830e-02</internalNodes>
          <leafValues>
            -3.1505218148231506e-01 7.3275923728942871e-01</leafValues></_>
        <_>
          <internalNodes>
            0 -1 57 6.7230984568595886e-03</internalNodes>
          <leafValues>
            -6.1825281381607056e-01 4.1984397172927856e-01</leafValues></_></weakClassifiers></_>
    <!-- stage 8 -->
    <_>
      <maxWeakCount>8</maxWeakCount>
      <stageThreshold>-1.7933124303817749e+00</stageThreshold>
      <weakClassifiers>
        <_>
          <internalNodes>
            0 -1 91 -2.9349802061915398e-02</internalNodes>
          <leafValues>
            4.4578313827514648e-01 -7.6013708114624023e-01</leafValues></_>
        <_>
          <internalNodes>
            0 -1 107 -7.7552283182740211e-03</internalNodes>
          <leafValues>
            6.7634338140487671e-01 -5.3492778539657593e-01</leafValues></_>
        <_>
          <internalNodes>
            0 -1 24 -1.7833437770605087e-02</internalNodes>
          <leafValues>
            4.3777069449424744e-01 -6.5377897024154663e-01</leafValues></_>
        <_>
          <internalNodes>
            0 -1 41 -1.7861044034361839e-04</internalNodes>
          <leafValues>
            3.0005899071693420e-01 -7.0067691802978516e-01</leafValues></_>
        <_>
          <internalNodes>
            0 -1 103 1.9146584672853351e-03</internalNodes>
          <leafValues>
            -7.8719395399093628e-01 2.4683620035648346e-01</leafValues></_>
        <_>
          <internalNodes>
            0 -1 6 1.3942508958280087e-02</internalNodes>
          <leafValues>
            -3.7744626402854919e-01 5.7226705551147461e-01</leafValues></_>
        <_>
          <internalNodes>
            0 -1 4 -2.1056916564702988e-02</internalNodes>
          <leafValues>
            6.7682570219039917e-01 -3.3428049087524414e-01</leafValues></_>
        <_>
          <internalNodes>
            0 -1 60 -1.6306716715916991e-03</internalNodes>
          <leafValues>
            3.2036301493644714e-01 -7.3054361343383789e-01</leafValues></_></weakClassifiers></_>
    <!-- stage 9 -->
    <_>
      <maxWeakCount>5</maxWeakCount>
      <stageThreshold>-9.8936772346496582e-01</stageThreshold>
      <weakClassifiers>
        <_>
          <internalNodes>
            0 -1 89 9.7517985850572586e-03</internalNodes>
          <leafValues>
            -6.8053418397903442e-01 6.5714287757873535e-01</leafValues></_>
        <_>
          <internalNodes>
            0 -1 98 4.7575153410434723e-02</internalNodes>
          <leafValues>
            -3.9610990881919861e-01 8.0082178115844727e-01</leafValues></_>
        <_>
          <internalNodes>
            0 -1 61 2.1500688046216965e-02</internalNodes>
          <leafValues>
            2.7529293298721313e-01 -9.5600444078445435e-01</leafValues></_>
        <_>
          <internalNodes>
            0 -1 1 3.1437013298273087e-02</internalNodes>
          <leafValues>
            -3.6315116286277771e-01 6.4150744676589966e-01</leafValues></_>
        <_>
          <internalNodes>
            0 -1 5 5.2311226725578308e-02</internalNodes>
          <leafValues>
            -7.9515832662582397e-01 3.6429944634437561e-01</leafValues></_></weakClassifiers></_>
    <!-- stage 10 -->
    <_>
      <maxWeakCount>8</maxWeakCount>
      <stageThreshold>-1.6159313917160034e+00</stageThreshold>
      <weakClassifiers>
        <_>
          <internalNodes>
            0 -1 42 7.2854924947023392e-03</internalNodes>
          <leafValues>
            -8.1149131059646606e-01 2.3627075552940369e-01</leafValues></_>
        <_>
          <internalNodes>
            0 -1 100 1.0926067829132080e-02</internalNodes>
          <leafValues>
            -6.2081325054168701e-01 3.7575995922088623e-01</leafValues></_>
        <_>
          <internalNodes>
            0 -1 10 4.7723550349473953e-02</internalNodes>
          <leafValues>
            -4.7719657421112061e-01 4.8119634389877319e-01</leafValues></_>
        <_>
          <internalNodes>
            0 -1 15 2.9483400285243988e-02</internalNodes>
          <leafValues>
            -3.2821971178054810e-01 6.6841512918472290e-01</leafValues></_>
        <_>
          <internalNodes>
            0 -1 71 8.7132662883959711e-05</internalNodes>
          <leafValues>
            -4.8400893807411194e-01 4.4710555672645569e-01</leafValues></_>
        <_>
          <internalNodes>
            0 -1 49 4.4479265809059143e-02</internalNodes>
          <leafValues>
            -3.8949638605117798e-01 4.6204113960266113e-01</leafValues></_>
        <_>
          <internalNodes>
            0 -1 68 1.0199943062616512e-04</internalNodes>
          <leafValues>
            -5.9065276384353638e-01 3.3174782991409302e-01</leafValues></_>
        <_>
          <internalNodes>
            0 -1 39 1.0356332175433636e-02</internalNodes>
          <leafValues>
            2.3783673346042633e-01 -8.1922781467437744e-01</leafValues></_></weakClassifiers></_>
    <!-- stage 11 -->
    <_>
      <maxWeakCount>7</maxWeakCount>
      <stageThreshold>-1.6063115596771240e+00</stageThreshold>
      <weakClassifiers>
        <_>
          <internalNodes>
            0 -1 80 1.9848907366394997e-02</internalNodes>
          <leafValues>
            -7.7033489942550659e-01 3.2727271318435669e-01</leafValues></_>
        <_>
          <internalNodes>
            0 -1 12 2.3676350712776184e-02</internalNodes>
          <leafValues>
            -4.9916228652000427e-01 4.6261361241340637e-01</leafValues></_>
        <_>
          <internalNodes>
            0 -1 27 -3.8932986557483673e-02</internalNodes>
          <leafValues>
            7.7841705083847046e-01 -2.9638364911079407e-01</leafValues></_>
        <_>
          <internalNodes>
            0 -1 94 1.1149195954203606e-02</internalNodes>
          <leafValues>
            -7.6773172616958618e-01 2.7148601412773132e-01</leafValues></_>
        <_>
          <internalNodes>
            0 -1 67 1.3752651866525412e-03</internalNodes>
          <leafValues>
            -6.7209732532501221e-01 3.7972834706306458e-01</leafValues></_>
        <_>
          <internalNodes>
            0 -1 31 1.2313773855566978e-02</internalNodes>
          <leafValues>
            -4.1119760274887085e-01 5.3973942995071411e-01</leafValues></_>
        <_>
          <internalNodes>
            0 -1 43 -1.3514639809727669e-02</internalNodes>
          <leafValues>
            8.2009607553482056e-01 -1.9039765000343323e-01</leafValues></_></weakClassifiers></_>
    <!-- stage 12 -->
    <_>
      <maxWeakCount>9</maxWeakCount>
      <stageThreshold>-1.6600084304809570e+00</stageThreshold>
      <weakClassifiers>
        <_>
          <internalNodes>
            0 -1 82 -1.7367111518979073e-02</internalNodes>
          <leafValues>
            5.1300233602523804e-01 -6.7522263526916504e-01</leafValues></_>
        <_>
          <internalNodes>
            0 -1 58 2.2098720073699951e-02</internalNodes>
          <leafValues>
            -4.9995335936546326e-01 4.8140341043472290e-01</leafValues></_>
        <_>
          <internalNodes>
            0 -1 38 2.5448663160204887e-02</internalNodes>
          <leafValues>
            -3.8171675801277161e-01 6.0690057277679443e-01</leafValues></_>
        <_>
          <internalNodes>
            0 -1 84 -9.4320522621273994e-03</internalNodes>
          <leafValues>
            -8.7381321191787720e-01 2.3156309127807617e-01</leafValues></_>
        <_>
          <internalNodes>
            0 -1 95 2.0949695259332657e-02</internalNodes>
          <leafValues>
            2.1494685113430023e-01 -7.7815419435501099e-01</leafValues></_>
        <_>
          <internalNodes>
            0 -1 93 -2.4086661636829376e-02</internalNodes>
          <leafValues>
            3.9164617657661438e-01 -4.4694137573242188e-01</leafValues></_>
        <_>
          <internalNodes>
            0 -1 109 -1.4728058886248618e-04</internalNodes>
          <leafValues>
            3.5937392711639404e-01 -4.7914612293243408e-01</leafValues></_>
        <_>
          <internalNodes>
            0 -1 40 5.1361927762627602e-03</internalNodes>
          <leafValues>
            -5.3991341590881348e-01 3.2125222682952881e-01</leafValues></_>
        <_>
          <internalNodes>
            0 -1 7 -2.1801769733428955e-02</internalNodes>
          <leafValues>
            -7.9145884513854980e-01 2.0972304046154022e-01</leafValues></_></weakClassifiers></_>
    <!-- stage 13 -->
    <_>
      <maxWeakCount>7</maxWeakCount>
      <stageThreshold>-1.2695126533508301e+00</stageThreshold>
      <weakClassifiers>
        <_>
          <internalNodes>
            0 -1 45 -5.6824395433068275e-03</internalNodes>
          <leafValues>
            5.1300233602523804e-01 -6.7522263526916504e-01</leafValues></_>
        <_>
          <internalNodes>
            0 -1 62 9.1376845375634730e-05</internalNodes>
          <leafValues>
            -6.1499273777008057e-01 3.6658957600593567e-01</leafValues></_>
        <_>
          <internalNodes>
            0 -1 106 -1.0887716896831989e-02</internalNodes>
          <leafValues>
            5.5707341432571411e-01 -3.7215867638587952e-01</leafValues></_>
        <_>
          <internalNodes>
            0 -1 59 -8.4997732192277908e-03</internalNodes>
          <leafValues>
            3.2754191756248474e-01 -6.2096720933914185e-01</leafValues></_>
        <_>
          <internalNodes>
            0 -1 34 1.1426309123635292e-02</internalNodes>
          <leafValues>
            2.1998316049575806e-01 -8.5970479249954224e-01</leafValues></_>
        <_>
          <internalNodes>
            0 -1 48 -1.1841986328363419e-02</internalNodes>
          <leafValues>
            4.2122149467468262e-01 -4.5768186450004578e-01</leafValues></_>
        <_>
          <internalNodes>
            0 -1 14 -2.9934828635305166e-03</internalNodes>
          <leafValues>
            4.5347401499748230e-01 -3.7071093916893005e-01</leafValues></_></weakClassifiers></_>
    <!-- stage 14 -->
    <_>
      <maxWeakCount>8</maxWeakCount>
      <stageThreshold>-1.9762178659439087e+00</stageThreshold>
      <weakClassifiers>
        <_>
          <internalNodes>
            0 -1 86 1.0600964538753033e-02</internalNodes>
          <leafValues>
            -6.4437687397003174e-01 5.5865919589996338e-01</leafValues></_>
        <_>
          <internalNodes>
            0 -1 25 9.5917303115129471e-03</internalNodes>
          <leafValues>
            -5.1458245515823364e-01 3.8921454548835754e-01</leafValues></_>
        <_>
          <internalNodes>
            0 -1 56 -2.8075047302991152e-03</internalNodes>
          <leafValues>
            2.4324898421764374e-01 -7.5091964006423950e-01</leafValues></_>
        <_>
          <internalNodes>
            0 -1 32 -8.9891534298658371e-03</internalNodes>
          <leafValues>
            -8.0799299478530884e-01 2.0815418660640717e-01</leafValues></_>
        <_>
          <internalNodes>
            0 -1 92 2.1852362900972366e-02</internalNodes>
          <leafValues>
            -4.3557149171829224e-01 4.0697619318962097e-01</leafValues></_>
        <_>
          <internalNodes>
            0 -1 78 2.5535589084029198e-02</internalNodes>
          <leafValues>
            -8.5331237316131592e-01 2.1225035190582275e-01</leafValues></_>
        <_>
          <internalNodes>
            0 -1 22 -3.5019228234887123e-03</internalNodes>
          <leafValues>
            2.9521074891090393e-01 -6.6311746835708618e-01</leafValues></_>
        <_>
          <internalNodes>
            0 -1 36 1.2867502868175507e-02</internalNodes>
          <leafValues>
            -3.4638264775276184e-01 5.5720859766006470e-01</leafValues></_></weakClassifiers></_>
    <!-- stage 15 -->
    <_>
      <maxWeakCount>7</maxWeakCount>
      <stageThreshold>-1.7596644163131714e+00</stageThreshold>
      <weakClassifiers>
        <_>
          <internalNodes>
            0 -1 101 -2.3428773507475853e-02</internalNodes>
          <leafValues>
            5.3591161966323853e-01 -6.4263957738876343e-01</leafValues></_>
        <_>
          <internalNodes>
            0 -1 64 -1.5665656328201294e-01</internalNodes>
          <leafValues>
            3.8234993815422058e-01 -4.8986974358558655e-01</leafValues></_>
        <_>
          <internalNodes>
            0 -1 18 1.0104312561452389e-02</internalNodes>
          <leafValues>
            1.8475219607353210e-01 -9.6036618947982788e-01</leafValues></_>
        <_>
          <internalNodes>
            0 -1 50 -1.9034090219065547e-03</internalNodes>
          <leafValues>
            2.0341193675994873e-01 -7.3598140478134155e-01</leafValues></_>
        <_>
          <internalNodes>
            0 -1 9 4.5960685238242149e-03</internalNodes>
          <leafValues>
            -4.2845910787582397e-01 4.0786641836166382e-01</leafValues></_>
        <_>
          <internalNodes>
            0 -1 99 -4.2489804327487946e-03</internalNodes>
          <leafValues>
            -8.0408710241317749e-01 2.1284958720207214e-01</leafValues></_>
        <_>
          <internalNodes>
            0 -1 44 9.3287862837314606e-03</internalNodes>
          <leafValues>
            1.3968357443809509e-01 -8.7152010202407837e-01</leafValues></_></weakClassifiers></_>
    <!-- stage 16 -->
    <_>
      <maxWeakCount>8</maxWeakCount>
      <stageThreshold>-1.4301140308380127e+00</stageThreshold>
      <weakClassifiers>
        <_>
          <internalNodes>
            0 -1 63 -2.7197506278753281e-02</internalNodes>
          <leafValues>
            2.6229506731033325e-01 -7.1544712781906128e-01</leafValues></_>
        <_>
          <internalNodes>
            0 -1 76 1.8255664035677910e-03</internalNodes>
          <leafValues>
            -5.3633707761764526e-01 3.2474905252456665e-01</leafValues></_>
        <_>
          <internalNodes>
            0 -1 102 4.6911304816603661e-03</internalNodes>
          <leafValues>
            -6.3968825340270996e-01 2.6999840140342712e-01</leafValues></_>
        <_>
          <internalNodes>
            0 -1 19 -4.1344664990901947e-02</internalNodes>
          <leafValues>
            3.4770500659942627e-01 -4.8939210176467896e-01</leafValues></_>
        <_>
          <internalNodes>
            0 -1 108 -6.0348203405737877e-03</internalNodes>
          <leafValues>
            4.8944726586341858e-01 -3.2788628339767456e-01</leafValues></_>
        <_>
          <internalNodes>
            0 -1 66 -6.7542986944317818e-03</internalNodes>
          <leafValues>
            -8.1317239999771118e-01 2.5556337833404541e-01</leafValues></_>
        <_>
          <internalNodes>
            0 -1 87 -1.8034217879176140e-02</internalNodes>
          <leafValues>
            -9.2452204227447510e-01 1.3477909564971924e-01</leafValues></_>
        <_>
          <internalNodes>
            0 -1 16 2.1054205717518926e-04</internalNodes>
          <leafValues>
            -6.1851155757904053e-01 2.3000998795032501e-01</leafValues></_></weakClassifiers></_></stages>
  <features>
    <_>
      <rects>
        <_>
          0 0 8 4 -1.</_>
        <_>
          0 2 8 2 2.</_></rects>
      <tilted>0</tilted></_>
    <_>
      <rects>
        <_>
          0 1 4 19 -1.</_>
        <_>
          1 1 2 19 2.</_></rects>
      <tilted>0</tilted></_>
    <_>
      <rects>
        <_>
          0 1 16 3 -1.</_>
        <_>
          0 2 16 1 3.</_></rects>
      <tilted>0</tilted></_>
    <_>
      <rects>
        <_>
          0 2 16 4 -1.</_>
        <_>
          0 3 16 2 2.</_></rects>
      <tilted>0</tilted></_>
    <_>
      <rects>
        <_>
          0 3 4 15 -1.</_>
        <_>
          2 3 2 15 2.</_></rects>
      <tilted>0</tilted></_>
    <_>
      <rects>
        <_>
          0 3 14 12 -1.</_>
        <_>
          0 7 14 4 3.</_></rects>
      <tilted>0</tilted></_>
    <_>
      <rects>
        <_>
          0 6 2 13 -1.</_>
        <_>
          1 6 1 13 2.</_></rects>
      <tilted>0</tilted></_>
    <_>
      <rects>
        <_>
          0 7 3 8 -1.</_>
        <_>
          0 11 3 4 2.</_></rects>
      <tilted>0</tilted></_>
    <_>
      <rects>
        <_>
          0 8 2 8 -1.</_>
        <_>
          1 8 1 8 2.</_></rects>
      <tilted>0</tilted></_>
    <_>
      <rects>
        <_>
          0 10 4 3 -1.</_>
        <_>
          1 10 2 3 2.</_></rects>
      <tilted>0</tilted></_>
    <_>
      <rects>
        <_>
          0 11 6 6 -1.</_>
        <_>
          2 13 2 2 9.</_></rects>
      <tilted>0</tilted></_>
    <_>
      <rects>
        <_>
          0 13 6 2 -1.</_>
        <_>
          2 13 2 2 3.</_></rects>
      <tilted>0</tilted></_>
    <_>
      <rects>
        <_>
          0 17 6 3 -1.</_>
        <_>
          2 18 2 1 9.</_></rects>
      <tilted>0</tilted></_>
    <_>
      <rects>
        <_>
          0 19 2 1 -1.</_>
        <_>
          1 19 1 1 2.</_></rects>
      <tilted>0</tilted></_>
    <_>
      <rects>
        <_>
          1 0 2 1 -1.</_>
        <_>
          1 0 1 1 2.</_></rects>
      <tilted>1</tilted></_>
    <_>
      <rects>
        <_>
          1 1 18 3 -1.</_>
        <_>
          1 2 18 1 3.</_></rects>
      <tilted>0</tilted></_>
    <_>
      <rects>
        <_>
          1 4 2 8 -1.</_>
        <_>
          1 6 2 4 2.</_></rects>
      <tilted>0</tilted></_>
    <_>
      <rects>
        <_>
          1 5 2 15 -1.</_>
        <_>
          1 10 2 5 3.</_></rects>
      <tilted>0</tilted></_>
    <_>
      <rects>
        <_>
          1 10 4 10 -1.</_>
        <_>
          1 15 4 5 2.</_></rects>
      <tilted>0</tilted></_>
    <_>
      <rects>
        <_>
          1 14 12 3 -1.</_>
        <_>
          5 14 4 3 3.</_></rects>
      <tilted>0</tilted></_>
    <_>
      <rects>
        <_>
          2 0 17 2 -1.</_>
        <_>
          2 1 17 1 2.</_></rects>
      <tilted>0</tilted></_>
    <_>
      <rects>
        <_>
          2 3 12 4 -1.</_>
        <_>
          2 4 12 2 2.</_></rects>
      <tilted>0</tilted></_>
    <_>
      <rects>
        <_>
          2 6 8 5 -1.</_>
        <_>
          6 6 4 5 2.</_></rects>
      <tilted>0</tilted></_>
    <_>
      <rects>
        <_>
          2 10 4 9 -1.</_>
        <_>
          4 10 2 9 2.</_></rects>
      <tilted>0</tilted></_>
    <_>
      <rects>
        <_>
          2 11 6 4 -1.</_>
        <_>
          5 11 3 4 2.</_></rects>
      <tilted>0</tilted></_>
    <_>
      <rects>
        <_>
          2 12 4 2 -1.</_>
        <_>
          3 13 2 2 2.</_></rects>
      <tilted>1</tilted></_>
    <_>
      <rects>
        <_>
          2 12 6 5 -1.</_>
        <_>
          5 12 3 5 2.</_></rects>
      <tilted>0</tilted></_>
    <_>
      <rects>
        <_>
          2 16 14 4 -1.</_>
        <_>
          2 17 14 2 2.</_></rects>
      <tilted>0</tilted></_>
    <_>
      <rects>
        <_>
          2 17 13 2 -1.</_>
        <_>
          2 18 13 1 2.</_></rects>
      <tilted>0</tilted></_>
    <_>
      <rects>
        <_>
          3 0 2 4 -1.</_>
        <_>
          3 2 2 2 2.</_></rects>
      <tilted>0</tilted></_>
    <_>
      <rects>
        <_>
          3 0 9 3 -1.</_>
        <_>
          6 3 3 3 3.</_></rects>
      <tilted>1</tilted></_>
    <_>
      <rects>
        <_>
          3 1 5 3 -1.</_>
        <_>
          3 2 5 1 3.</_></rects>
      <tilted>0</tilted></_>
    <_>
      <rects>
        <_>
          3 4 12 3 -1.</_>
        <_>
          6 4 6 3 2.</_></rects>
      <tilted>0</tilted></_>
    <_>
      <rects>
        <_>
          3 5 10 6 -1.</_>
        <_>
          8 5 5 6 2.</_></rects>
      <tilted>0</tilted></_>
    <_>
      <rects>
        <_>
          3 8 16 6 -1.</_>
        <_>
          3 8 8 3 2.</_>
        <_>
          11 11 8 3 2.</_></rects>
      <tilted>0</tilted></_>
    <_>
      <rects>
        <_>
          3 14 8 1 -1.</_>
        <_>
          5 14 4 1 2.</_></rects>
      <tilted>0</tilted></_>
    <_>
      <rects>
        <_>
          3 17 5 3 -1.</_>
        <_>
          3 18 5 1 3.</_></rects>
      <tilted>0</tilted></_>
    <_>
      <rects>
        <_>
          4 0 4 15 -1.</_>
        <_>
          4 5 4 5 3.</_></rects>
      <tilted>0</tilted></_>
    <_>
      <rects>
        <_>
          4 0 13 2 -1.</_>
        <_>
          4 1 13 1 2.</_></rects>
      <tilted>0</tilted></_>
    <_>
      <rects>
        <_>
          4 3 12 10 -1.</_>
        <_>
          10 3 6 10 2.</_></rects>
      <tilted>0</tilted></_>
    <_>
      <rects>
        <_>
          4 4 4 4 -1.</_>
        <_>
          5 5 2 4 2.</_></rects>
      <tilted>1</tilted></_>
    <_>
      <rects>
        <_>
          4 4 6 6 -1.</_>
        <_>
          4 4 3 3 2.</_>
        <_>
          7 7 3 3 2.</_></rects>
      <tilted>0</tilted></_>
    <_>
      <rects>
        <_>
          4 9 8 2 -1.</_>
        <_>
          4 10 8 1 2.</_></rects>
      <tilted>0</tilted></_>
    <_>
      <rects>
        <_>
          5 1 10 3 -1.</_>
        <_>
          5 2 10 1 3.</_></rects>
      <tilted>0</tilted></_>
    <_>
      <rects>
        <_>
          5 3 12 4 -1.</_>
        <_>
          8 3 6 4 2.</_></rects>
      <tilted>0</tilted></_>
    <_>
      <rects>
        <_>
          5 10 1 4 -1.</_>
        <_>
          5 11 1 2 2.</_></rects>
      <tilted>0</tilted></_>
    <_>
      <rects>
        <_>
          5 14 8 4 -1.</_>
        <_>
          9 14 4 4 2.</_></rects>
      <tilted>0</tilted></_>
    <_>
      <rects>
        <_>
          5 15 12 3 -1.</_>
        <_>
          9 15 4 3 3.</_></rects>
      <tilted>0</tilted></_>
    <_>
      <rects>
        <_>
          6 10 2 6 -1.</_>
        <_>
          6 12 2 2 3.</_></rects>
      <tilted>0</tilted></_>
    <_>
      <rects>
        <_>
          6 11 8 9 -1.</_>
        <_>
          8 11 4 9 2.</_></rects>
      <tilted>0</tilted></_>
    <_>
      <rects>
        <_>
          7 2 3 4 -1.</_>
        <_>
          7 2 3 2 2.</_></rects>
      <tilted>1</tilted></_>
    <_>
      <rects>
        <_>
          7 7 6 4 -1.</_>
        <_>
          7 8 6 2 2.</_></rects>
      <tilted>0</tilted></_>
    <_>
      <rects>
        <_>
          7 9 4 4 -1.</_>
        <_>
          6 10 4 2 2.</_></rects>
      <tilted>1</tilted></_>
    <_>
      <rects>
        <_>
          7 11 6 7 -1.</_>
        <_>
          9 11 2 7 3.</_></rects>
      <tilted>0</tilted></_>
    <_>
      <rects>
        <_>
          7 12 6 3 -1.</_>
        <_>
          9 12 2 3 3.</_></rects>
      <tilted>0</tilted></_>
    <_>
      <rects>
        <_>
          7 12 6 5 -1.</_>
        <_>
          9 12 2 5 3.</_></rects>
      <tilted>0</tilted></_>
    <_>
      <rects>
        <_>
          8 3 6 4 -1.</_>
        <_>
          8 3 6 2 2.</_></rects>
      <tilted>1</tilted></_>
    <_>
      <rects>
        <_>
          8 8 2 6 -1.</_>
        <_>
          8 10 2 2 3.</_></rects>
      <tilted>0</tilted></_>
    <_>
      <rects>
        <_>
          8 12 4 7 -1.</_>
        <_>
          9 12 2 7 2.</_></rects>
      <tilted>0</tilted></_>
    <_>
      <rects>
        <_>
          8 14 4 2 -1.</_>
        <_>
          8 14 2 2 2.</_></rects>
      <tilted>1</tilted></_>
    <_>
      <rects>
        <_>
          9 2 3 4 -1.</_>
        <_>
          9 2 3 2 2.</_></rects>
      <tilted>1</tilted></_>
    <_>
      <rects>
        <_>
          9 3 6 8 -1.</_>
        <_>
          9 7 6 4 2.</_></rects>
      <tilted>0</tilted></_>
    <_>
      <rects>
        <_>
          9 5 1 2 -1.</_>
        <_>
          9 6 1 1 2.</_></rects>
      <tilted>0</tilted></_>
    <_>
      <rects>
        <_>
          9 8 4 6 -1.</_>
        <_>
          9 8 2 3 2.</_>
        <_>
          11 11 2 3 2.</_></rects>
      <tilted>0</tilted></_>
    <_>
      <rects>
        <_>
          9 10 9 6 -1.</_>
        <_>
          12 12 3 2 9.</_></rects>
      <tilted>0</tilted></_>
    <_>
      <rects>
        <_>
          9 11 9 3 -1.</_>
        <_>
          12 11 3 3 3.</_></rects>
      <tilted>0</tilted></_>
    <_>
      <rects>
        <_>
          9 13 10 6 -1.</_>
        <_>
          9 16 10 3 2.</_></rects>
      <tilted>0</tilted></_>
    <_>
      <rects>
        <_>
          10 4 6 6 -1.</_>
        <_>
          13 4 3 6 2.</_></rects>
      <tilted>0</tilted></_>
    <_>
      <rects>
        <_>
          10 7 4 3 -1.</_>
        <_>
          12 7 2 3 2.</_></rects>
      <tilted>0</tilted></_>
    <_>
      <rects>
        <_>
          10 8 3 4 -1.</_>
        <_>
          9 9 3 2 2.</_></rects>
      <tilted>1</tilted></_>
    <_>
      <rects>
        <_>
          10 10 4 4 -1.</_>
        <_>
          10 12 4 2 2.</_></rects>
      <tilted>0</tilted></_>
    <_>
      <rects>
        <_>
          10 14 2 2 -1.</_>
        <_>
          10 14 1 1 2.</_>
        <_>
          11 15 1 1 2.</_></rects>
      <tilted>0</tilted></_>
    <_>
      <rects>
        <_>
          10 17 10 3 -1.</_>
        <_>
          10 18 10 1 3.</_></rects>
      <tilted>0</tilted></_>
    <_>
      <rects>
        <_>
          11 1 7 15 -1.</_>
        <_>
          11 6 7 5 3.</_></rects>
      <tilted>0</tilted></_>
    <_>
      <rects>
        <_>
          11 6 7 4 -1.</_>
        <_>
          10 7 7 2 2.</_></rects>
      <tilted>1</tilted></_>
    <_>
      <rects>
        <_>
          11 8 6 12 -1.</_>
        <_>
          11 11 6 6 2.</_></rects>
      <tilted>0</tilted></_>
    <_>
      <rects>
        <_>
          11 9 3 2 -1.</_>
        <_>
          11 10 3 1 2.</_></rects>
      <tilted>0</tilted></_>
    <_>
      <rects>
        <_>
          12 2 8 2 -1.</_>
        <_>
          12 2 4 2 2.</_></rects>
      <tilted>1</tilted></_>
    <_>
      <rects>
        <_>
          12 4 5 10 -1.</_>
        <_>
          12 4 5 5 2.</_></rects>
      <tilted>1</tilted></_>
    <_>
      <rects>
        <_>
          12 6 8 4 -1.</_>
        <_>
          11 7 8 2 2.</_></rects>
      <tilted>1</tilted></_>
    <_>
      <rects>
        <_>
          12 8 3 4 -1.</_>
        <_>
          13 9 1 4 3.</_></rects>
      <tilted>1</tilted></_>
    <_>
      <rects>
        <_>
          12 10 2 6 -1.</_>
        <_>
          12 12 2 2 3.</_></rects>
      <tilted>0</tilted></_>
    <_>
      <rects>
        <_>
          12 16 4 3 -1.</_>
        <_>
          12 17 4 1 3.</_></rects>
      <tilted>0</tilted></_>
    <_>
      <rects>
        <_>
          13 1 7 12 -1.</_>
        <_>
          13 1 7 6 2.</_></rects>
      <tilted>1</tilted></_>
    <_>
      <rects>
        <_>
          13 3 3 8 -1.</_>
        <_>
          13 3 3 4 2.</_></rects>
      <tilted>1</tilted></_>
    <_>
      <rects>
        <_>
          13 10 2 10 -1.</_>
        <_>
          13 10 1 5 2.</_>
        <_>
          14 15 1 5 2.</_></rects>
      <tilted>0</tilted></_>
    <_>
      <rects>
        <_>
          13 12 3 3 -1.</_>
        <_>
          13 13 3 1 3.</_></rects>
      <tilted>0</tilted></_>
    <_>
      <rects>
        <_>
          13 13 4 3 -1.</_>
        <_>
          13 13 2 3 2.</_></rects>
      <tilted>1</tilted></_>
    <_>
      <rects>
        <_>
          13 14 1 4 -1.</_>
        <_>
          13 15 1 2 2.</_></rects>
      <tilted>0</tilted></_>
    <_>
      <rects>
        <_>
          13 16 6 2 -1.</_>
        <_>
          13 16 3 1 2.</_>
        <_>
          16 17 3 1 2.</_></rects>
      <tilted>0</tilted></_>
    <_>
      <rects>
        <_>
          14 9 2 4 -1.</_>
        <_>
          14 9 1 4 2.</_></rects>
      <tilted>1</tilted></_>
    <_>
      <rects>
        <_>
          14 9 4 4 -1.</_>
        <_>
          15 10 2 4 2.</_></rects>
      <tilted>1</tilted></_>
    <_>
      <rects>
        <_>
          15 1 4 14 -1.</_>
        <_>
          15 1 2 7 2.</_>
        <_>
          17 8 2 7 2.</_></rects>
      <tilted>0</tilted></_>
    <_>
      <rects>
        <_>
          15 10 4 4 -1.</_>
        <_>
          14 11 4 2 2.</_></rects>
      <tilted>1</tilted></_>
    <_>
      <rects>
        <_>
          16 2 3 12 -1.</_>
        <_>
          12 6 3 4 3.</_></rects>
      <tilted>1</tilted></_>
    <_>
      <rects>
        <_>
          16 3 2 8 -1.</_>
        <_>
          16 3 2 4 2.</_></rects>
      <tilted>1</tilted></_>
    <_>
      <rects>
        <_>
          16 4 4 9 -1.</_>
        <_>
          17 4 2 9 2.</_></rects>
      <tilted>0</tilted></_>
    <_>
      <rects>
        <_>
          16 4 4 16 -1.</_>
        <_>
          17 4 2 16 2.</_></rects>
      <tilted>0</tilted></_>
    <_>
      <rects>
        <_>
          16 5 4 14 -1.</_>
        <_>
          17 5 2 14 2.</_></rects>
      <tilted>0</tilted></_>
    <_>
      <rects>
        <_>
          16 7 3 9 -1.</_>
        <_>
          16 10 3 3 3.</_></rects>
      <tilted>0</tilted></_>
    <_>
      <rects>
        <_>
          16 9 4 8 -1.</_>
        <_>
          16 9 2 4 2.</_>
        <_>
          18 13 2 4 2.</_></rects>
      <tilted>0</tilted></_>
    <_>
      <rects>
        <_>
          16 14 3 3 -1.</_>
        <_>
          17 15 1 3 3.</_></rects>
      <tilted>1</tilted></_>
    <_>
      <rects>
        <_>
          17 1 2 8 -1.</_>
        <_>
          17 5 2 4 2.</_></rects>
      <tilted>0</tilted></_>
    <_>
      <rects>
        <_>
          17 2 3 18 -1.</_>
        <_>
          17 8 3 6 3.</_></rects>
      <tilted>0</tilted></_>
    <_>
      <rects>
        <_>
          17 16 3 1 -1.</_>
        <_>
          18 17 1 1 3.</_></rects>
      <tilted>1</tilted></_>
    <_>
      <rects>
        <_>
          18 0 2 2 -1.</_>
        <_>
          18 0 2 1 2.</_></rects>
      <tilted>1</tilted></_>
    <_>
      <rects>
        <_>
          18 2 2 8 -1.</_>
        <_>
          19 2 1 8 2.</_></rects>
      <tilted>0</tilted></_>
    <_>
      <rects>
        <_>
          18 9 2 6 -1.</_>
        <_>
          19 9 1 6 2.</_></rects>
      <tilted>0</tilted></_>
    <_>
      <rects>
        <_>
          18 13 2 5 -1.</_>
        <_>
          19 13 1 5 2.</_></rects>
      <tilted>0</tilted></_>
    <_>
      <rects>
        <_>
          18 19 2 1 -1.</_>
        <_>
          19 19 1 1 2.</_></rects>
      <tilted>0</tilted></_></features></cascade>
</opencv_storage>
