<?xml version="1.0"?>
<opencv_storage>
<stage8>
  <maxWeakCount>8</maxWeakCount>
  <stageThreshold>-1.7933124303817749e+00</stageThreshold>
  <weakClassifiers>
    <_>
      <internalNodes>
        0 -1 113741 -2.9349802061915398e-02</internalNodes>
      <leafValues>
        4.4578313827514648e-01 -7.6013708114624023e-01</leafValues></_>
    <_>
      <internalNodes>
        0 -1 124488 -7.7552283182740211e-03</internalNodes>
      <leafValues>
        6.7634338140487671e-01 -5.3492778539657593e-01</leafValues></_>
    <_>
      <internalNodes>
        0 -1 27109 -1.7833437770605087e-02</internalNodes>
      <leafValues>
        4.3777069449424744e-01 -6.5377897024154663e-01</leafValues></_>
    <_>
      <internalNodes>
        0 -1 41528 -1.7861044034361839e-04</internalNodes>
      <leafValues>
        3.0005899071693420e-01 -7.0067691802978516e-01</leafValues></_>
    <_>
      <internalNodes>
        0 -1 122104 1.9146584672853351e-03</internalNodes>
      <leafValues>
        -7.8719395399093628e-01 2.4683620035648346e-01</leafValues></_>
    <_>
      <internalNodes>
        0 -1 5134 1.3942508958280087e-02</internalNodes>
      <leafValues>
        -3.7744626402854919e-01 5.7226705551147461e-01</leafValues></_>
    <_>
      <internalNodes>
        0 -1 2918 -2.1056916564702988e-02</internalNodes>
      <leafValues>
        6.7682570219039917e-01 -3.3428049087524414e-01</leafValues></_>
    <_>
      <internalNodes>
        0 -1 81623 -1.6306716715916991e-03</internalNodes>
      <leafValues>
        3.2036301493644714e-01 -7.3054361343383789e-01</leafValues></_></weakClassifiers></stage8>
</opencv_storage>
