<?xml version="1.0"?>
<opencv_storage>
<stage4>
  <maxWeakCount>6</maxWeakCount>
  <stageThreshold>-1.8927956819534302e+00</stageThreshold>
  <weakClassifiers>
    <_>
      <internalNodes>
        0 -1 69234 -1.2992560863494873e-02</internalNodes>
      <leafValues>
        5.4761904478073120e-01 -7.9931193590164185e-01</leafValues></_>
    <_>
      <internalNodes>
        0 -1 37198 -7.1685863658785820e-03</internalNodes>
      <leafValues>
        5.1766628026962280e-01 -6.7265248298645020e-01</leafValues></_>
    <_>
      <internalNodes>
        0 -1 29142 2.6250481605529785e-02</internalNodes>
      <leafValues>
        -6.4002603292465210e-01 4.6094256639480591e-01</leafValues></_>
    <_>
      <internalNodes>
        0 -1 119689 2.9060045257210732e-02</internalNodes>
      <leafValues>
        -4.3689039349555969e-01 6.9772547483444214e-01</leafValues></_>
    <_>
      <internalNodes>
        0 -1 28797 1.6393702477216721e-02</internalNodes>
      <leafValues>
        -3.1439900398254395e-01 7.4006110429763794e-01</leafValues></_>
    <_>
      <internalNodes>
        0 -1 6402 8.9278919622302055e-03</internalNodes>
      <leafValues>
        -3.7644678354263306e-01 6.1705923080444336e-01</leafValues></_></weakClassifiers></stage4>
</opencv_storage>
