<?xml version="1.0"?>
<opencv_storage>
<stage6>
  <maxWeakCount>6</maxWeakCount>
  <stageThreshold>-1.4468253850936890e+00</stageThreshold>
  <weakClassifiers>
    <_>
      <internalNodes>
        0 -1 71050 4.2304933071136475e-02</internalNodes>
      <leafValues>
        -7.4761635065078735e-01 4.7540983557701111e-01</leafValues></_>
    <_>
      <internalNodes>
        0 -1 94833 1.2260717153549194e-01</internalNodes>
      <leafValues>
        -6.5698164701461792e-01 4.1920840740203857e-01</leafValues></_>
    <_>
      <internalNodes>
        0 -1 93652 2.4039607495069504e-02</internalNodes>
      <leafValues>
        -3.4884631633758545e-01 8.1095081567764282e-01</leafValues></_>
    <_>
      <internalNodes>
        0 -1 22676 -1.6293689608573914e-02</internalNodes>
      <leafValues>
        7.3659008741378784e-01 -3.3232596516609192e-01</leafValues></_>
    <_>
      <internalNodes>
        0 -1 14188 4.6935753198340535e-04</internalNodes>
      <leafValues>
        -6.3838422298431396e-01 3.7242120504379272e-01</leafValues></_>
    <_>
      <internalNodes>
        0 -1 106531 1.1375902220606804e-02</internalNodes>
      <leafValues>
        -8.0239230394363403e-01 2.8212344646453857e-01</leafValues></_></weakClassifiers></stage6>
</opencv_storage>
