<?xml version="1.0"?>
<opencv_storage>
<stage7>
  <maxWeakCount>7</maxWeakCount>
  <stageThreshold>-1.7225160598754883e+00</stageThreshold>
  <weakClassifiers>
    <_>
      <internalNodes>
        0 -1 70751 6.5452627837657928e-02</internalNodes>
      <leafValues>
        -7.7866512537002563e-01 5.0604492425918579e-01</leafValues></_>
    <_>
      <internalNodes>
        0 -1 123506 6.3919466920197010e-03</internalNodes>
      <leafValues>
        -4.9124267697334290e-01 6.1469793319702148e-01</leafValues></_>
    <_>
      <internalNodes>
        0 -1 103349 -4.0377110242843628e-02</internalNodes>
      <leafValues>
        6.9951981306076050e-01 -3.5120534896850586e-01</leafValues></_>
    <_>
      <internalNodes>
        0 -1 26630 -1.5188219025731087e-02</internalNodes>
      <leafValues>
        4.2942664027214050e-01 -5.4825800657272339e-01</leafValues></_>
    <_>
      <internalNodes>
        0 -1 109396 -2.0082894479855895e-04</internalNodes>
      <leafValues>
        3.6906901001930237e-01 -6.4533597230911255e-01</leafValues></_>
    <_>
      <internalNodes>
        0 -1 29015 1.7794704064726830e-02</internalNodes>
      <leafValues>
        -3.1505218148231506e-01 7.3275923728942871e-01</leafValues></_>
    <_>
      <internalNodes>
        0 -1 77458 6.7230984568595886e-03</internalNodes>
      <leafValues>
        -6.1825281381607056e-01 4.1984397172927856e-01</leafValues></_></weakClassifiers></stage7>
</opencv_storage>
