<?xml version="1.0"?>
<opencv_storage>
<stage15>
  <maxWeakCount>7</maxWeakCount>
  <stageThreshold>-1.7596644163131714e+00</stageThreshold>
  <weakClassifiers>
    <_>
      <internalNodes>
        0 -1 121336 -2.3428773507475853e-02</internalNodes>
      <leafValues>
        5.3591161966323853e-01 -6.4263957738876343e-01</leafValues></_>
    <_>
      <internalNodes>
        0 -1 85557 -1.5665656328201294e-01</internalNodes>
      <leafValues>
        3.8234993815422058e-01 -4.8986974358558655e-01</leafValues></_>
    <_>
      <internalNodes>
        0 -1 17187 1.0104312561452389e-02</internalNodes>
      <leafValues>
        1.8475219607353210e-01 -9.6036618947982788e-01</leafValues></_>
    <_>
      <internalNodes>
        0 -1 65943 -1.9034090219065547e-03</internalNodes>
      <leafValues>
        2.0341193675994873e-01 -7.3598140478134155e-01</leafValues></_>
    <_>
      <internalNodes>
        0 -1 7473 4.5960685238242149e-03</internalNodes>
      <leafValues>
        -4.2845910787582397e-01 4.0786641836166382e-01</leafValues></_>
    <_>
      <internalNodes>
        0 -1 120441 -4.2489804327487946e-03</internalNodes>
      <leafValues>
        -8.0408710241317749e-01 2.1284958720207214e-01</leafValues></_>
    <_>
      <internalNodes>
        0 -1 49836 9.3287862837314606e-03</internalNodes>
      <leafValues>
        1.3968357443809509e-01 -8.7152010202407837e-01</leafValues></_></weakClassifiers></stage15>
</opencv_storage>
